-18.68441351 -13.65391854 -16.24923895 18.16639625 -6.93257987
-14.05648863 16.47413195 3.36465466 -4.59987286 7.86171637

0.26313030 -8.41957569 0.10987761 -13.28660785 -0.05343558 -0.39042636 0.70701465 -0.54393887 -1.41678835 5.32564348
11.40348541 -0.50371972 3.00621856 -2.72585456 -4.32073793 -2.91586573 6.91940238 -8.14172470 -1.22209007 0.95617777
1.02996046 4.83874969 0.13701474 10.21877496 -0.43672249 -8.88998632 0.94451460 -0.42287406 1.62944990 -3.66990841
-4.85868358 2.81179329 -1.67053780 -3.48478120 2.36255071 17.11314452 -2.87719215 3.33083941 -0.14457059 -2.74649447
5.87206962 -0.06969191 1.80980782 -0.69792136 -2.82078437 -2.21142157 3.19986031 -4.32612474 -0.43295177 -0.21067503
-2.15071757 -0.34017510 -0.62709411 -0.40485852 0.70922793 -0.29472830 -1.46350593 2.01040870 -0.39166548 0.29384592

0.25948422 3.08718674 -11.75523620 2.56367659 -2.37740825
-1.02272939 -6.21387519 1.78372734 -4.75869784 -0.71169646
0.53879912 1.55482738 -3.52329730 0.48915880 -0.94451303
-0.35684790 -12.51564438 2.10170047 -8.05923249 -0.41935404
-0.60272074 -1.48610600 4.91313153 1.48771277 -0.71608588
-1.78966778 -11.02031302 2.02436506 -2.76918767 0.03743351
0.03245255 2.99262670 -7.54772676 0.61169611 -1.67745192
0.08202150 -1.68548980 9.39043803 1.45997069 0.86737126
0.27694287 -1.58408561 1.03200806 -0.23928470 -0.57044081
-0.53440031 5.27783788 -1.43923324 4.47531500 -0.93686751
0.05548527 0.33996351 0.68516180 1.18162503 -1.91055140

-1.39417262
-3.73841905
1.22474185
3.05902622
1.03063699
0.27711505

