-10.55471452 5.86058983 7.45734187 -4.97248113 -6.83467551
-2.32476747 -4.82098351 -11.51429341 -4.86955654 -9.89461788

-1.55062383 -1.84076137 -1.26088215 -1.25891446 0.65534936 -4.23931806 -3.61651300 -0.38124402 5.48928831 -1.10264880
6.88024865 2.27632683 1.25071137 6.68841416 -2.42021270 -2.62327621 10.51849698 2.35924901 -12.07930279 3.63731046
-3.69132905 0.96885622 0.95420302 -3.75607989 8.73669802 2.78510374 0.23963140 -0.05516605 -0.66106851 -1.05560765
0.16159903 -0.81343468 -1.90347110 -0.21360190 -11.23746190 -1.45523454 0.64666944 0.79063216 0.42441417 -0.56015239
-1.95148058 -1.08148612 -12.28791751 -1.18121875 13.36190470 -3.73946601 0.07826205 2.99124102 0.55059246 -0.93082171
-6.02245410 -2.72856794 2.05754897 -5.83805673 -0.09790699 -0.30701017 -0.72115498 -0.92572909 0.38496122 -3.42737766

-1.27555641 1.50279744 1.77267071 7.77088607 -1.42145127
-1.46636149 0.69539570 -0.93921511 1.27798269 -1.12662314
0.93540606 0.04226426 -1.04474794 0.05014110 -6.70210720
-0.54000865 1.95245339 1.44227386 7.69653346 -1.31515907
-1.41461310 -2.26961266 0.96993522 -11.22995660 9.51857022
0.22111505 -1.23828174 -1.59779374 -2.43231199 -5.02615093
-0.37024454 9.04847769 0.25748289 -4.68309501 -0.80392646
-0.49635080 0.70346465 0.47059319 1.63523260 -2.79861107
-0.37802706 -11.90609144 -1.80134313 0.49617535 0.95476424
-0.93992829 0.90865076 0.89647663 3.26638989 -0.54290073
0.16731295 -1.09872537 -0.96114617 -5.11866624 0.78398611

1.87281202
2.70339379
1.69901062
-6.72407461
3.26138243
-2.61686558

