10.83182680 15.13548371 8.72115982 8.44104320 11.00382510 -10.02335640 8.23193454 6.39208712 -7.18967437 8.60387406 -7.11115008 8.29266301 -7.10504880 -15.54361489 -8.97772196
5.03867769 -7.41308731 11.43823966 5.71048477 5.19599086 6.77945551 10.78838822 7.25367656 8.43308332 5.60242815 8.31409362 5.76636382 8.30534099 -2.94826350 2.50477734

6.66653082 -4.88594144 -1.99577379 -2.12578041 -1.97749051 -2.09706748 0.99261916 -8.76754146 -2.06779922 -4.58941132 -88.51566631 -110.89188772 -29.00830008 -2.16865799 -1.58959081 14.40196037 -9.88175339 -2.25661484 -1.79500968 -2.32832628 -86.28391160 -63.18081556 2.47683181 -71.22559776 -1.51473723
7.54605867 -84.49263890 -1.56640401 -1.24921930 -2.53721830 -1.13836972 2.59469664 -1.24744587 -2.25719508 -49.52439765 -38.23650763 -49.65261298 -0.95017574 -0.78409777 -0.67218019 90.66235902 -61.47119935 -1.66466771 -1.15164952 -1.21107003 -37.70564890 -64.13203767 15.89987984 -37.62710518 -0.83905465
6.28725027 0.39819096 -2.30715756 -2.09225778 -1.65493802 -2.20833450 -0.33863332 -16.66860869 -2.11703370 -1.49897630 -53.70244027 -22.50962843 -16.95434870 -2.01969435 -2.95800383 2.79137646 -1.05149706 -1.93137820 -2.89819775 -2.27011170 -56.16129163 -18.27334737 0.18113623 -50.95850096 -3.20549117
6.85167065 -3.51459352 -2.29835508 -1.68655641 -1.78002857 -2.37778016 1.03991389 -18.00784144 -1.85165443 -4.16870146 -81.19025655 -91.05040428 -26.13469387 -2.63834904 -1.62488923 10.23414798 -10.10822610 -2.27356168 -1.75988678 -1.59389814 -82.94178312 -48.45706316 2.05883206 -69.70376053 -2.18487808
6.88811230 -5.39865425 -1.93999562 -2.03479156 -2.10845573 -3.00205053 1.47055460 -7.88423573 -1.70267389 -5.68527595 -87.58499793 -115.07436658 -29.54298076 -2.06722645 -1.37151138 16.22825040 -11.11553117 -2.21203175 -1.08789671 -2.08287117 -84.90705889 -67.43916134 3.28362813 -70.50111029 -1.24576916
-97.17470938 6.38368749 -7.81270859 -5.15112132 -7.95642375 -7.28170560 -105.19489895 0.71103491 -7.90521865 12.34144671 9.66103546 11.72824754 2.28156535 -7.85129928 -8.63576451 -6.36793388 5.87185962 -7.72346755 -9.21489553 -5.63444480 10.09436104 4.37119396 -21.52505134 -0.68809990 -8.38832519
6.18741852 0.13683171 -2.04603874 -2.62063256 -1.78612704 -2.18797566 -0.06108295 -15.91101086 -2.06538913 -1.97670698 -54.00505097 -26.18652846 -17.02776832 -2.02717934 -2.86293765 3.63304600 -2.37768604 -2.00468340 -2.96149207 -2.27347228 -56.07958707 -16.92846183 0.98944669 -50.43274426 -2.53540832
6.41554745 -0.57460554 -2.10817702 -2.56891250 -2.00703277 -2.32481992 -0.30099930 -17.81626430 -1.81733157 -2.27583662 -75.22593081 -77.83774571 -25.39908469 -2.15527443 -2.43143095 7.54352267 -4.39897252 -1.88041387 -2.71060434 -2.45207652 -78.34032296 -32.68074483 0.44686456 -65.64207541 -2.46428999
-115.10158711 4.80067862 -6.27609720 -6.19141979 -6.62076083 -6.47904703 -47.58773563 1.20856193 -6.72003705 5.45122278 9.18814922 10.34890228 1.82157418 -7.10844781 -6.42640823 -4.87038970 4.60709329 -6.22183394 -6.45998315 -6.37820689 9.53974113 3.94361599 -10.17288415 -1.80184015 -6.28073835
6.52496438 -4.80671049 -2.44998604 -2.19563056 -2.44822059 -1.92839374 0.38715738 -17.50440921 -2.41061208 -4.26567457 -82.31159900 -92.31012997 -26.15361941 -2.21917869 -2.09558957 10.64036553 -11.28950293 -2.08623435 -1.95292571 -2.27782434 -83.82398863 -49.95991537 1.77898680 -71.10262890 -1.86187979
-113.67946604 5.21031932 -7.12257799 -6.53002701 -6.88894961 -6.68222219 -47.64842861 0.71374723 -6.34102387 5.63880825 8.65028858 10.83544898 2.16303375 -7.08142301 -6.23225681 -5.48046705 4.81336996 -6.67954201 -6.16033071 -6.53817002 9.48563604 4.07789246 -10.11759270 -1.67884424 -5.99333460
6.66753604 -3.92860373 -1.80931428 -2.12676890 -2.05235140 -1.81848612 0.65912332 -17.94846546 -2.06827808 -3.80430122 -81.03317516 -90.69646595 -26.52305534 -2.14093490 -1.81944759 9.92598161 -9.75535380 -2.29014580 -1.63594183 -2.29890989 -82.94870535 -48.20120479 2.26627843 -69.95106065 -2.22433546
-113.76855653 5.07136987 -6.88008822 -6.33351625 -6.43318366 -6.81894021 -47.73297819 1.09263981 -6.60633470 5.77902836 9.39502861 11.17719361 1.43984349 -6.49453853 -5.86229266 -5.44289372 5.34563152 -6.61564661 -6.27556530 -6.57195078 9.35960863 4.32185959 -10.13845830 -1.62272823 -6.12396605
-3.77919353 30.94757478 -1.95509650 -2.93660968 -2.31242592 -2.67051772 -42.23683464 1.66062806 -3.09283196 185.90098920 11.39585214 13.64026232 2.02577276 -2.09757249 -10.25116391 -13.01685712 19.35171194 -2.62589306 -8.29695546 -1.55725851 11.45310247 6.87683133 -68.58230001 0.58067484 -9.94864310
-78.09242438 -4.92089479 -10.06604101 -2.40892773 -10.69632482 -9.87679524 -111.32572893 1.32931628 -9.77179665 32.81339881 10.00443331 12.49368532 1.72013186 -10.38889556 -12.88757406 -9.01639243 10.02804167 -8.73024837 -13.95026570 -2.23887211 10.61235164 5.39611681 -43.52013939 -0.34486720 -11.96566169
5.37742237 2.32351621 -2.48645792 -2.04602097 -2.75133090 -2.03034129 -1.47462321 0.84405341 -2.79370615 -0.58319678 8.24582999 10.21512904 1.24689742 -2.60870632 -4.21113370 -4.18849538 3.76539146 -2.56821764 -3.59289248 -2.03241381 8.75248439 2.79481765 -0.63420986 -2.48705442 -3.55661968

-0.59619331 -3.26243617 -0.54157589 -1.63468353 -2.08962429 -1.60269148 -5.55599308 -0.50548430 -4.47944888 -1.31871511 -0.87699919 -0.82650479 -33.86314836 0.53886153 0.67551056
-11.30901176 -12.29539913 1.31328504 0.40180304 -11.88880807 -11.91226369 -11.76515250 -11.22243158 2.34041486 -1.92905611 -5.93071333 -7.20368138 -21.02981126 -19.18187560 -13.22067251
0.79578720 7.37174809 -0.16673639 -0.65500323 6.48959912 5.49541209 -0.09664715 2.53780367 0.14666570 -0.01094698 -0.15621741 -0.30557240 11.67334827 3.62223593 0.19806828
-0.68994905 -0.27551113 -0.68921455 -1.02057920 -0.45500613 -0.34865523 0.48534032 -0.51255313 0.08218021 -0.85964946 -0.63126997 -0.81638323 -0.61008377 2.13207180 0.62510967
-0.02955951 5.79651362 -1.08336348 -1.08535627 5.21966010 3.78829553 -1.32673225 1.47085146 -0.97489785 -0.24731656 -0.02592597 -0.76556440 11.07512925 3.78227725 0.65060262
0.22092908 4.25084525 -0.34945746 -0.87768137 3.66751878 2.88132447 0.32769125 1.14192447 -0.46058923 -0.16840561 -0.58466039 -0.89618142 10.39745199 3.80650751 0.57061320
-5.30129316 -12.01276246 -1.61341058 -1.46487477 -14.79645023 -11.49741842 -34.31079013 -9.19328443 -2.41638217 0.85891941 0.31803666 0.00178630 -20.46447385 2.31053877 0.12460145
-0.41930139 -0.31304577 5.70183159 16.72253905 -0.63413907 -0.33832370 11.61543248 -0.72248043 -0.38660471 -18.23090870 -12.91465712 -0.73407457 -0.30594541 -0.77590964 -1.17787824
-0.19427409 4.61150847 -0.86454171 -0.57770082 3.69805967 2.51574804 -1.04409182 0.81826653 -0.29382708 -0.37251946 -0.34774939 -0.38858305 10.60918819 3.78762184 0.66963125
-150.12064299 -243.90546604 -3.70278805 0.27790034 -239.77264037 -217.18746624 15.65776521 -183.24584570 -39.27245098 0.18366987 -3.70863579 -7.41299659 -811.55702302 1.07615095 -36.25695366
1.46714393 1.21592589 -2.52824094 -1.27905765 0.88713398 0.45003427 108.74471468 0.65941460 0.23962391 -3.62981416 3.48780708 1.57430540 0.27081752 1.26499746 1.65581827
1.09623503 0.63475665 0.23395305 -3.82744354 0.80272804 0.68959021 4.90659101 0.29183123 -0.20100563 3.61955627 3.46967876 1.12820714 -0.05371453 1.31383728 1.08140112
-0.69374618 -0.34728621 5.53817805 5.12884143 -0.66081281 -0.46509406 24.83726455 -0.09255785 -0.70545835 -40.91864661 3.63144384 -0.74224659 -0.53778707 -1.13262811 -1.22988160
1.05068166 8.13362229 -0.78856231 -0.62775481 6.79490109 5.80597952 -0.31126979 3.23826474 0.03189517 -0.00203829 -0.08503772 -0.01286069 11.43314720 3.24742111 -0.05973780
-4.21820608 -19.32840428 -1.53635003 -0.95951651 -6.54515781 -11.86787613 -2.12497690 -7.32900514 -3.29424469 -1.41482350 -2.57064989 -2.50351122 -13.28793242 5.15729916 -0.79758770
-9.29966574 -9.39507154 2.43664746 -10.05595589 -9.60390130 -9.78907663 -0.64524163 -9.79147503 -7.74901299 -36.70993353 -7.37907675 -8.47085199 -0.94950303 0.29776394 -9.02304001
-1.82550315 -1.45358822 -2.54288928 2.64117508 -1.81013058 -1.94265805 -6.07598049 -2.33588557 -2.56820624 0.57373468 0.01887009 -2.20041638 -0.67136732 -12.95018544 -1.43806819
0.03302705 2.43633500 -0.16664217 -0.86573500 1.72111475 1.75693993 0.46863975 0.41827531 -0.61218357 -0.00346875 -0.51171603 -0.61929568 9.43249065 3.73639156 0.52080377
-2.68342279 -9.32286266 -0.56335837 -0.84537766 -0.72053786 -5.37729172 -1.63757056 -2.11824474 -0.94151445 -1.20957779 -2.05347106 -1.68068662 -4.14497107 5.06403231 -0.22347972
-0.56967589 -0.45578625 -0.78804532 -1.02520192 -0.45719708 -0.58269072 0.46538115 0.03582315 0.16439497 -1.19138577 -0.44305929 0.06497717 -0.81110204 2.50719983 0.75387068
1.00645219 0.64145726 -10.13646907 7.18500320 1.00296160 0.78013187 108.00459241 0.32053720 -0.28186953 10.26615562 4.03666838 1.23138026 -0.24297405 1.45175515 1.38125860
0.18925776 -0.75472184 7.14811879 -251.89633827 -0.45020891 -0.56970846 -2.13973308 -0.59513939 -0.76844956 7.85042048 1.91319163 -0.46721494 -1.10349334 -0.07738424 -0.44592616
-6.80609718 -19.29456562 -121.10228119 -5.53818962 -18.77272102 -15.44331068 -5.63449464 -11.35041054 -1.64908603 -10.35849832 -5.41530936 -4.38971814 -32.18847686 -1.56578335 -4.87216791
1.31621397 0.75673586 -29.45891379 2.89598424 1.02869270 0.51055526 81.54717417 0.34862937 -0.05546230 23.64622399 3.84931716 2.01200617 -0.23035735 1.35256051 1.30766437
-4.02286557 -19.30347403 -1.35309348 -1.22946943 -7.17483057 -12.50240332 -1.95225453 -6.55954833 -3.20129985 -1.60759510 -2.79108085 -2.50663514 -16.12378585 5.00361344 -0.90877680
-9.70296461 -9.63761698 -0.86180808 -0.22073072 -9.42498507 -9.26346179 -4.44583753 -9.38791029 -7.26140398 -5.39469171 -6.07926604 -9.09938380 -1.12867124 0.17608026 -9.22388102

2.00976624
1.91418725
-1.33571240
-1.05935425
1.90839118
1.92646839
-1.41658077
2.19511881
2.28897260
-0.44975993
-2.30146558
-0.65608009
-5.78783200
2.35980100
0.92456748
0.27835611

