10.80111822 15.08637117 8.76182805 8.55073260 10.97721341 -10.02642290 8.26352447 6.33791261 -7.18665281 8.70564406 -7.10889754 8.40539115 -7.10285710 -15.70760522 -8.94066525
5.10272142 -7.40059792 11.41201842 5.63176578 5.25608264 6.81902054 10.77022896 7.32267975 8.45750715 5.53287001 8.33668064 5.68295975 8.32777940 -2.97081408 2.50833728

6.83650089 -4.88520599 -1.99948003 -2.12899144 -1.98112452 -2.10067558 1.00938887 -8.57392229 -2.07136274 -4.60898368 -88.56749533 -111.07506790 -29.27446597 -2.17247579 -1.59295446 14.52747099 -9.87429189 -2.26012797 -1.79848145 -2.33167697 -86.32282622 -63.83036509 2.49275843 -71.22559782 -1.51805942
7.71603569 -84.53640975 -1.57011024 -1.25243033 -2.54085230 -1.14197781 2.61146635 -1.24744586 -2.26075860 -49.49976157 -38.23650763 -49.65261292 -0.95017579 -0.78791557 -0.67554383 90.70954350 -61.50884875 -1.66818084 -1.15512129 -1.21442072 -37.70564890 -64.13203784 15.91944254 -37.62710518 -0.84237684
6.45722033 0.39919042 -2.31086380 -2.09546881 -1.65857203 -2.21194260 -0.32186361 -16.47297000 -2.12059722 -1.51854941 -53.83641044 -22.98565618 -17.11532086 -2.02351215 -2.96136748 2.78630600 -1.05954970 -1.93489133 -2.90166952 -2.27346239 -56.37530709 -18.26114095 0.19706258 -50.95935920 -3.20881336
7.02164078 -3.51365949 -2.30206132 -1.68976744 -1.78366258 -2.38138826 1.05668360 -17.81074844 -1.85521795 -4.18827340 -81.32834574 -91.51457118 -26.35299684 -2.64216684 -1.62825288 10.26683603 -10.11278382 -2.27707481 -1.76335855 -1.59724883 -83.12892153 -48.98107461 2.07475906 -69.70376504 -2.18820027
7.05808237 -5.39789540 -1.94370186 -2.03800259 -2.11208974 -3.00565863 1.48732431 -7.69219431 -1.70623741 -5.70484847 -87.63455006 -115.25301705 -29.81208638 -2.07104425 -1.37487503 16.35329844 -11.10890027 -2.21554488 -1.09136848 -2.08622186 -84.94417517 -68.09796454 3.29955468 -70.50111035 -1.24909135
-97.18062760 6.38475889 -7.81271010 -5.15112279 -7.95642528 -7.28170711 -105.25281442 0.66590908 -7.90522019 12.31839967 9.54546734 11.27206379 2.28882605 -7.85130077 -8.63576613 -6.37320415 5.86379454 -7.72346909 -9.21489714 -5.63444627 9.89271813 4.56722211 -21.65515649 -0.69762699 -8.38832681
6.35738858 0.13783104 -2.04974498 -2.62384359 -1.78976105 -2.19158376 -0.04431324 -15.72635091 -2.06895265 -1.99628009 -54.13797640 -26.66298242 -17.17607869 -2.03099714 -2.86630130 3.62805057 -2.38573212 -2.00819653 -2.96496384 -2.27682297 -56.29269204 -16.91347717 1.00537304 -50.43370951 -2.53873051
6.58551770 -0.57361007 -2.11188326 -2.57212353 -2.01066678 -2.32842802 -0.28422959 -17.66670154 -1.82089509 -2.29540921 -75.35999438 -78.33242019 -25.52973795 -2.15909223 -2.43479460 7.54064616 -4.40680171 -1.88392700 -2.71407611 -2.45542721 -78.55255942 -32.78131278 0.46279135 -65.64268519 -2.46761218
-115.61946064 4.80167701 -6.27645405 -6.19175297 -6.62111755 -6.47940057 -47.55836680 1.16343610 -6.72039263 5.43150515 9.07258110 9.89271853 1.82883488 -7.10880663 -6.42676837 -4.87565963 4.59902735 -6.22218790 -6.46034617 -6.37854534 9.33809822 4.13964416 -10.14771426 -1.81136724 -6.28109692
6.69493450 -4.80578837 -2.45369228 -2.19884159 -2.45185460 -1.93200184 0.40392709 -17.30542011 -2.41417560 -4.28524647 -82.44639220 -92.75507969 -26.37632156 -2.22299649 -2.09895322 10.67952414 -11.29341776 -2.08974748 -1.95639748 -2.28117503 -84.00057987 -50.49984329 1.79491380 -71.10263206 -1.86520198
-114.18836225 5.21131737 -7.12293290 -6.53035810 -6.88930430 -6.68257374 -47.61831716 0.66862140 -6.34137737 5.61907989 8.53472046 10.37926523 2.17029445 -7.08177998 -6.23261458 -5.48573708 4.80530400 -6.67989386 -6.16069143 -6.53850644 9.28399313 4.27392063 -10.09225598 -1.68837133 -5.99369077
6.83750618 -3.92766254 -1.81302052 -2.12997993 -2.05598541 -1.82209422 0.67589303 -17.75328527 -2.07184160 -3.82387315 -81.17322847 -91.17330544 -26.73723432 -2.14475270 -1.82281124 9.95439133 -9.76030382 -2.29365893 -1.63941360 -2.30226058 -83.14280505 -48.71006250 2.28220545 -69.95106666 -2.22765765
-114.27686207 5.07236789 -6.88044312 -6.33384731 -6.43353834 -6.81929175 -47.70280669 1.04751398 -6.60668818 5.75929921 9.27946049 10.72100986 1.44710419 -6.49489550 -5.86265039 -5.44816376 5.33756556 -6.61599844 -6.27592599 -6.57228718 9.15796572 4.51788776 -10.11311238 -1.63225532 -6.12432218
-3.77919353 31.45621099 -1.95509650 -2.93660968 -2.31242592 -2.67051772 -42.23683471 1.61550223 -3.09283196 185.86782879 11.28028402 13.18407864 2.03303346 -2.09757249 -10.25116391 -13.02336281 19.34781117 -2.62589306 -8.29695546 -1.55725851 11.25145956 7.07285965 -68.63501392 0.57114775 -9.94864310
-78.09273342 -4.92412126 -10.06604110 -2.40892782 -10.69632491 -9.87679533 -111.34890458 1.28419041 -9.77179674 32.77758549 9.88886521 12.03750185 1.72739261 -10.38889565 -12.88757416 -9.02177049 10.02001501 -8.73024846 -13.95026580 -2.23887220 10.41070874 5.59214618 -43.70420585 -0.35439429 -11.96566179
5.54739243 2.32451591 -2.49016416 -2.04923200 -2.75496491 -2.03394939 -1.45785350 0.79892758 -2.79726967 -0.60276990 8.13026187 9.75894528 1.25415812 -2.61252412 -4.21449735 -4.19376471 3.75732555 -2.57173077 -3.59636425 -2.03576450 8.55084148 2.99084579 -0.61828351 -2.49658151 -3.55994187

-0.59619366 -3.26243617 -0.54157589 -1.63376015 -2.08962429 -1.60269148 -5.78373510 -0.50548428 -4.47954413 -1.31871511 -0.87755268 -0.82650762 -33.86314836 0.53783879 0.67551913
-11.30901176 -12.29539913 1.22664264 0.36165939 -11.88880807 -11.91226369 -11.70452407 -11.22243158 2.34041486 -2.36626202 -5.97781191 -7.20369574 -21.02981058 -19.21651700 -13.22067251
0.79578720 7.37174809 -0.16673639 -0.65500323 6.48959912 5.49541209 -0.09664713 2.53780367 0.14666570 -0.01094698 -0.15621741 -0.30557240 11.67334827 3.62121090 0.19806828
-0.68994905 -0.27551113 -0.68921455 -1.02057920 -0.45500613 -0.34865523 0.48534036 -0.51255313 0.08218021 -0.85964946 -0.63126997 -0.81638323 -0.61008377 2.13056374 0.62510967
-0.02955951 5.79651362 -1.08336348 -1.08535627 5.21966010 3.78829553 -1.32673223 1.47085146 -0.97489785 -0.24731656 -0.02592597 -0.76556440 11.07512925 3.78131479 0.65060262
0.22092908 4.25084525 -0.34945746 -0.87768137 3.66751878 2.88132447 0.32769127 1.14192447 -0.46058923 -0.16840561 -0.58466039 -0.89618142 10.39745199 3.80555799 0.57061320
-5.30129339 -12.01276246 -1.61341058 -1.46537601 -14.79645023 -11.49741842 -34.30296480 -9.19328444 -2.41635747 0.85891941 0.31669015 0.00177573 -20.46447385 2.26129349 0.12462724
-0.41930139 -0.31304577 5.90079601 16.72257256 -0.63413907 -0.33832370 11.61165206 -0.72248043 -0.38660471 -20.30417325 -15.06299468 -0.73403755 -0.30594541 -0.77591061 -1.17787824
-0.19427409 4.61150847 -0.86454171 -0.57770082 3.69805967 2.51574804 -1.04409180 0.81826653 -0.29382708 -0.37251946 -0.34774939 -0.38858305 10.60918819 3.78667943 0.66963125
-150.12062970 -243.90546059 -3.87687531 0.23773253 -239.77263471 -217.18745944 15.71526437 -183.24583655 -39.27035354 -0.25353604 -3.75573439 -7.41307167 -811.42063587 1.06699011 -36.25691905
1.46714393 1.21592589 -2.41744419 -1.27905765 0.88713398 0.45003427 108.72966500 0.65941460 0.23962391 -6.84475132 3.44080113 1.57432508 0.27081752 1.26499644 1.65581827
1.09623503 0.63475665 0.08693680 -4.78580228 0.80272804 0.68959021 5.42185045 0.29183123 -0.20100563 3.46296122 3.42249274 1.12822145 -0.05371453 1.31383641 1.08140112
-0.69374618 -0.34728621 5.64600394 5.12889409 -0.66081281 -0.46509406 24.79781553 -0.09255785 -0.70545835 -44.34248097 3.97880375 -0.74225715 -0.53778707 -1.13262719 -1.22988160
1.05068166 8.13362229 -0.78856231 -0.62775481 6.79490109 5.80597952 -0.31126976 3.23826474 0.03189517 -0.00203829 -0.08503772 -0.01286069 11.43314720 3.24624329 -0.05973780
-4.21820608 -19.32840428 -1.53635003 -0.95951651 -6.54515781 -11.86787613 -2.12497688 -7.32900514 -3.29424469 -1.41482350 -2.57064989 -2.50351122 -13.28793242 5.15664595 -0.79758770
-9.29879688 -9.39186658 2.50163399 -10.51242663 -9.60071061 -9.78615133 -0.65965758 -9.78916993 -7.76372450 -29.07732214 -7.38381248 -8.47513296 -0.94821463 0.30646589 -9.02077729
-1.82550315 -1.45358822 -2.51518339 2.60100691 -1.81013058 -1.94265805 -5.90267565 -2.33588557 -2.56820624 0.13652877 -0.02822849 -2.20043059 -0.67136732 -12.94808801 -1.43806819
0.03302705 2.43633500 -0.16664217 -0.86573500 1.72111475 1.75693993 0.46863977 0.41827531 -0.61218357 -0.00346875 -0.51171603 -0.61929568 9.43249065 3.73544977 0.52080377
-2.68342279 -9.32286266 -0.56335837 -0.84537766 -0.72053786 -5.37729172 -1.63757054 -2.11824474 -0.94151445 -1.20957779 -2.05347106 -1.68068662 -4.14497107 5.06334562 -0.22347972
-0.56967589 -0.45578625 -0.78804532 -1.02520192 -0.45719708 -0.58269072 0.46538118 0.03582315 0.16439497 -1.19138577 -0.44305929 0.06497717 -0.81110204 2.50586146 0.75387068
1.00645219 0.64145726 -10.02573423 7.18500320 1.00296160 0.78013187 108.00206162 0.32053720 -0.28186953 7.03947379 3.98999644 1.23140042 -0.24297405 1.45175411 1.38125860
0.18925776 -0.75472184 7.00989288 -250.95680205 -0.45020891 -0.56970846 -6.12733288 -0.59513939 -0.76844956 6.68208998 1.86598314 -0.46719744 -1.10349334 -0.07738516 -0.44592616
-6.80665074 -19.29463897 -121.76484074 -5.24122646 -18.77280237 -15.44346469 -5.24340091 -11.35072592 -1.65324162 -10.35849832 -5.30435349 -4.38914339 -32.10107524 -1.58225443 -4.87263601
1.31621397 0.75673586 -29.45859007 2.89598424 1.02869270 0.51055526 81.54717417 0.34862937 -0.05546230 23.64622399 3.84931717 2.01200617 -0.23035735 1.35256051 1.30766437
-4.02286557 -19.30347403 -1.35309348 -1.22946943 -7.17483057 -12.50240332 -1.95225451 -6.55954833 -3.20129985 -1.60759510 -2.79108085 -2.50663514 -16.12378585 5.00294849 -0.90877680
-9.70209575 -9.63441202 -0.85124602 -0.26090990 -9.42179438 -9.26053649 -4.39232493 -9.38560519 -7.27611549 -5.83189762 -6.12638577 -9.10367969 -1.12738284 0.18478221 -9.22161830

2.01026755
1.91595518
-1.33136490
-1.06325471
1.91015658
1.92807479
-1.43962207
2.19624805
2.28238727
-0.63058413
-2.60210976
-0.65011680
-5.78551335
2.37156570
0.92700184
0.27458689

