-18.68914499 -13.48651692 -16.24256828 18.13261513 -6.90593888
-14.05136212 16.61258124 3.47105482 -4.68008534 7.88449005

0.26313030 -8.40873107 0.11029090 -13.28591714 -0.05347640 -0.39042638 0.70701465 -0.54393885 -1.41721289 5.33735439
11.39422436 -0.46699297 3.00828974 -2.76091018 -4.30532537 -2.96822656 6.89778023 -8.16961034 -1.23166621 0.86193620
1.02996178 4.84132884 0.13705607 10.19629162 -0.43697207 -8.90939647 0.94454148 -0.42287210 1.60684682 -3.67693805
-4.85180792 2.79983789 -1.67596340 -3.49985558 2.34898024 17.09048425 -2.91677009 3.29679481 -0.14556468 -2.76131991
5.86906320 -0.14869614 1.81147242 -0.73251596 -2.81699756 -2.26368245 3.18478050 -4.34291044 -0.44553985 -0.17684668
-2.14384098 -0.34067222 -0.63125350 -0.44974367 0.69475324 -0.34708973 -1.50307190 1.97634964 -0.40562203 0.24727528

0.27705676 3.12275048 -11.74817622 2.54383953 -2.37731080
-1.04102905 -6.18250902 1.79227481 -4.75102250 -0.70654931
0.56598920 1.58946955 -3.51876500 0.47668722 -0.94771835
-0.19917528 -12.51339448 2.10173744 -8.04547242 -0.41899649
-0.60436942 -1.48608388 4.91750960 1.47585157 -0.70770261
-1.82918381 -11.01240587 2.03390897 -2.76396491 0.04269074
0.04054142 3.02822477 -7.54211040 0.63723564 -1.67877009
0.08776528 -1.68549201 9.39438043 1.44701324 0.87321757
0.16540291 -1.57808836 1.03400848 -0.23574346 -0.56574624
-0.44179874 5.28455670 -1.43810778 4.45337298 -0.93683964
0.07054878 0.37553643 0.69470572 1.18192633 -1.90530970

-1.38960807
-3.75987591
1.23339852
3.02854814
1.03626700
0.41141534

